<?xml version="1.0"?>
<opencv_storage>
<cascade>
  <stageType>BOOST</stageType>
  <featureType>HAAR</featureType>
  <height>20</height>
  <width>20</width>
  <stageParams>
    <boostType>GAB</boostType>
    <minHitRate>9.9900001287460327e-01</minHitRate>
    <maxFalseAlarm>5.0000000745058060e-02</maxFalseAlarm>
    <weightTrimRate>9.4999999999999996e-01</weightTrimRate>
    <maxDepth>1</maxDepth>
    <maxWeakCount>100</maxWeakCount></stageParams>
  <featureParams>
    <maxCatCount>0</maxCatCount>
    <featSize>1</featSize>
    <mode>ALL</mode></featureParams>
  <stageNum>3</stageNum>
  <stages>
    <!-- stage 0 -->
    <_>
      <maxWeakCount>7</maxWeakCount>
      <stageThreshold>-1.6158430278301239e-01</stageThreshold>
      <weakClassifiers>
        <_>
          <internalNodes>
            0 -1 14 1.2910013087093830e-02</internalNodes>
          <leafValues>
            -6.7883211374282837e-01 8.2300883531570435e-01</leafValues></_>
        <_>
          <internalNodes>
            0 -1 16 4.0149977430701256e-03</internalNodes>
          <leafValues>
            -5.5046081542968750e-01 9.2414480447769165e-01</leafValues></_>
        <_>
          <internalNodes>
            0 -1 12 1.2128155678510666e-02</internalNodes>
          <leafValues>
            -9.1333532333374023e-01 5.7580041885375977e-01</leafValues></_>
        <_>
          <internalNodes>
            0 -1 0 2.2395269945263863e-02</internalNodes>
          <leafValues>
            -9.3675971031188965e-01 4.4308835268020630e-01</leafValues></_>
        <_>
          <internalNodes>
            0 -1 7 -2.1033067256212234e-02</internalNodes>
          <leafValues>
            6.5875095129013062e-01 -7.1602332592010498e-01</leafValues></_>
        <_>
          <internalNodes>
            0 -1 1 3.4551392309367657e-03</internalNodes>
          <leafValues>
            -9.7271841764450073e-01 4.6052595973014832e-01</leafValues></_>
        <_>
          <internalNodes>
            0 -1 3 -3.0994575354270637e-05</internalNodes>
          <leafValues>
            -1. 3.1884729862213135e-01</leafValues></_></weakClassifiers></_>
    <!-- stage 1 -->
    <_>
      <maxWeakCount>7</maxWeakCount>
      <stageThreshold>-1.8503654003143311e-01</stageThreshold>
      <weakClassifiers>
        <_>
          <internalNodes>
            0 -1 11 3.1686034053564072e-03</internalNodes>
          <leafValues>
            -6.1311477422714233e-01 9.5897436141967773e-01</leafValues></_>
        <_>
          <internalNodes>
            0 -1 2 -5.5881105363368988e-03</internalNodes>
          <leafValues>
            6.1378818750381470e-01 -9.3231499195098877e-01</leafValues></_>
        <_>
          <internalNodes>
            0 -1 6 4.6904128976166248e-03</internalNodes>
          <leafValues>
            -6.1054122447967529e-01 9.6558147668838501e-01</leafValues></_>
        <_>
          <internalNodes>
            0 -1 3 2.0724646674352698e-05</internalNodes>
          <leafValues>
            5.4454016685485840e-01 -1.</leafValues></_>
        <_>
          <internalNodes>
            0 -1 8 2.9795197769999504e-03</internalNodes>
          <leafValues>
            -5.5375850200653076e-01 8.0119895935058594e-01</leafValues></_>
        <_>
          <internalNodes>
            0 -1 10 4.0219058282673359e-03</internalNodes>
          <leafValues>
            -5.5034601688385010e-01 9.6567809581756592e-01</leafValues></_>
        <_>
          <internalNodes>
            0 -1 13 5.7110507041215897e-03</internalNodes>
          <leafValues>
            -5.2020466327667236e-01 9.8439562320709229e-01</leafValues></_></weakClassifiers></_>
    <!-- stage 2 -->
    <_>
      <maxWeakCount>6</maxWeakCount>
      <stageThreshold>5.1458245515823364e-01</stageThreshold>
      <weakClassifiers>
        <_>
          <internalNodes>
            0 -1 4 -6.1997100710868835e-03</internalNodes>
          <leafValues>
            9.2899405956268311e-01 -4.7432023286819458e-01</leafValues></_>
        <_>
          <internalNodes>
            0 -1 17 -3.6379144148668274e-05</internalNodes>
          <leafValues>
            -1. 5.0756412744522095e-01</leafValues></_>
        <_>
          <internalNodes>
            0 -1 5 -6.3294127583503723e-02</internalNodes>
          <leafValues>
            9.8437017202377319e-01 -4.9089190363883972e-01</leafValues></_>
        <_>
          <internalNodes>
            0 -1 15 -5.1882890984416008e-03</internalNodes>
          <leafValues>
            9.7474002838134766e-01 -5.0446677207946777e-01</leafValues></_>
        <_>
          <internalNodes>
            0 -1 18 4.3109077523695305e-05</internalNodes>
          <leafValues>
            5.7019811868667603e-01 -1.</leafValues></_>
        <_>
          <internalNodes>
            0 -1 9 -5.0698760896921158e-03</internalNodes>
          <leafValues>
            9.4913357496261597e-01 -4.9681520462036133e-01</leafValues></_></weakClassifiers></_></stages>
  <features>
    <_>
      <rects>
        <_>
          0 0 20 5 -1.</_>
        <_>
          5 0 10 5 2.</_></rects>
      <tilted>0</tilted></_>
    <_>
      <rects>
        <_>
          0 0 9 6 -1.</_>
        <_>
          0 3 9 3 2.</_></rects>
      <tilted>0</tilted></_>
    <_>
      <rects>
        <_>
          0 14 7 6 -1.</_>
        <_>
          0 17 7 3 2.</_></rects>
      <tilted>0</tilted></_>
    <_>
      <rects>
        <_>
          0 18 1 2 -1.</_>
        <_>
          0 19 1 1 2.</_></rects>
      <tilted>0</tilted></_>
    <_>
      <rects>
        <_>
          5 10 1 3 -1.</_>
        <_>
          5 11 1 1 3.</_></rects>
      <tilted>0</tilted></_>
    <_>
      <rects>
        <_>
          6 2 13 3 -1.</_>
        <_>
          5 3 13 1 3.</_></rects>
      <tilted>1</tilted></_>
    <_>
      <rects>
        <_>
          7 6 3 1 -1.</_>
        <_>
          8 6 1 1 3.</_></rects>
      <tilted>0</tilted></_>
    <_>
      <rects>
        <_>
          7 9 6 3 -1.</_>
        <_>
          9 10 2 1 9.</_></rects>
      <tilted>0</tilted></_>
    <_>
      <rects>
        <_>
          7 10 4 2 -1.</_>
        <_>
          7 10 2 1 2.</_>
        <_>
          9 11 2 1 2.</_></rects>
      <tilted>0</tilted></_>
    <_>
      <rects>
        <_>
          7 11 2 2 -1.</_>
        <_>
          7 11 1 1 2.</_>
        <_>
          8 12 1 1 2.</_></rects>
      <tilted>0</tilted></_>
    <_>
      <rects>
        <_>
          7 13 3 1 -1.</_>
        <_>
          8 13 1 1 3.</_></rects>
      <tilted>0</tilted></_>
    <_>
      <rects>
        <_>
          7 14 3 1 -1.</_>
        <_>
          8 14 1 1 3.</_></rects>
      <tilted>0</tilted></_>
    <_>
      <rects>
        <_>
          8 0 12 19 -1.</_>
        <_>
          11 0 6 19 2.</_></rects>
      <tilted>0</tilted></_>
    <_>
      <rects>
        <_>
          9 7 3 1 -1.</_>
        <_>
          10 7 1 1 3.</_></rects>
      <tilted>0</tilted></_>
    <_>
      <rects>
        <_>
          9 7 3 3 -1.</_>
        <_>
          10 8 1 1 9.</_></rects>
      <tilted>0</tilted></_>
    <_>
      <rects>
        <_>
          10 12 2 1 -1.</_>
        <_>
          11 12 1 1 2.</_></rects>
      <tilted>0</tilted></_>
    <_>
      <rects>
        <_>
          11 11 3 1 -1.</_>
        <_>
          12 11 1 1 3.</_></rects>
      <tilted>0</tilted></_>
    <_>
      <rects>
        <_>
          18 0 2 2 -1.</_>
        <_>
          18 1 2 1 2.</_></rects>
      <tilted>0</tilted></_>
    <_>
      <rects>
        <_>
          19 0 1 2 -1.</_>
        <_>
          19 1 1 1 2.</_></rects>
      <tilted>0</tilted></_></features></cascade>
</opencv_storage>
