<?xml version="1.0"?>
<opencv_storage>
<stage0>
  <maxWeakCount>7</maxWeakCount>
  <stageThreshold>-1.6158430278301239e-01</stageThreshold>
  <weakClassifiers>
    <_>
      <internalNodes>
        0 -1 84176 1.2910013087093830e-02</internalNodes>
      <leafValues>
        -6.7883211374282837e-01 8.2300883531570435e-01</leafValues></_>
    <_>
      <internalNodes>
        0 -1 98819 4.0149977430701256e-03</internalNodes>
      <leafValues>
        -5.5046081542968750e-01 9.2414480447769165e-01</leafValues></_>
    <_>
      <internalNodes>
        0 -1 72474 1.2128155678510666e-02</internalNodes>
      <leafValues>
        -9.1333532333374023e-01 5.7580041885375977e-01</leafValues></_>
    <_>
      <internalNodes>
        0 -1 424 2.2395269945263863e-02</internalNodes>
      <leafValues>
        -9.3675971031188965e-01 4.4308835268020630e-01</leafValues></_>
    <_>
      <internalNodes>
        0 -1 69940 -2.1033067256212234e-02</internalNodes>
      <leafValues>
        6.5875095129013062e-01 -7.1602332592010498e-01</leafValues></_>
    <_>
      <internalNodes>
        0 -1 675 3.4551392309367657e-03</internalNodes>
      <leafValues>
        -9.7271841764450073e-01 4.6052595973014832e-01</leafValues></_>
    <_>
      <internalNodes>
        0 -1 9856 -3.0994575354270637e-05</internalNodes>
      <leafValues>
        -1. 3.1884729862213135e-01</leafValues></_></weakClassifiers></stage0>
</opencv_storage>
